0.8648231625805,0.212616276714943,12.5965864733854,0.850607831145957,0.0509646037020128,0.866120059035435,0.751321256200555,0.331625204049557,0.0313186028707852,3.94919263080417,1.07727944759265,0.842655757107758,-0.617029797790645,-0.596489849523173,0.738259925949417,1.21429694712086,4.75992133405781,0.41978399184329,1.09493012480026,0.892179503440895,-0.352662780064696,-0.299678290184074,-0.322243269831551,-24.7832014430517,0.737013968369972,0.217188702414778,-0.370918990196162,0.329929977739284
1.27657089593474,-0.209326851310053,0.10353256359208,2.1201943822255,2.29994852892431,1.38482235781011,-0.582034670491541,0.467409819316574,-0.784468986023603,0.54361236485775,0.873916235135344,0.98531391490689,1.18237979805842,-1.00839892508029,0.426531548366597,0.198544317158251,-21.0710997260767,0.058051337186172,0.094901420293884,1.40668481311859,0.197437966489813,1.23789548038109,-0.746849969478326,1.25140574773294,2.15411917324477,0.861970084993896,2.05416051107771,0.207009635298456,1.69037708395486,-0.774781753422107,0.531660356379568,1.66186993080719,0.75176764829278,0.631418495706768,0.856686121968271,1.01318754274136,-0.427804806994281,0.733014205326564,2.35352362429402,2.29460288866094,1.87194328807342,-0.841249991015547,1.30797075721199,0.86288050125158,0.644027371665628,0.525748703122001,1.70716092460224,1.02912901859848,-0.0142179633288963
1.49301374170803,-6.54966649524589,-2.2636338537977,3.80373628746395,2.5544161346733,4.44680834369268,-6.50473326360165
